digraph Tree {
node [shape=box] ;
0 [label="男 <= 0.5\ngini = 0.468\nsamples = 984\nvalue = [616, 368]"] ;
1 [label="pclass=3rd <= 0.5\ngini = 0.431\nsamples = 369\nvalue = [116, 253]"] ;
0 -> 1 [labeldistance=2.5, labelangle=45, headlabel="True"] ;
2 [label="年龄 <= 2.5\ngini = 0.128\nsamples = 203\nvalue = [14, 189]"] ;
1 -> 2 ;
3 [label="gini = 0.0\nsamples = 1\nvalue = [1, 0]"] ;
2 -> 3 ;
4 [label="年龄 <= 21.5\ngini = 0.12\nsamples = 202\nvalue = [13, 189]"] ;
2 -> 4 ;
5 [label="gini = 0.0\nsamples = 32\nvalue = [0, 32]"] ;
4 -> 5 ;
6 [label="年龄 <= 27.5\ngini = 0.141\nsamples = 170\nvalue = [13, 157]"] ;
4 -> 6 ;
7 [label="年龄 <= 24.5\ngini = 0.287\nsamples = 23\nvalue = [4, 19]"] ;
6 -> 7 ;
8 [label="pclass=1st <= 0.5\ngini = 0.133\nsamples = 14\nvalue = [1, 13]"] ;
7 -> 8 ;
9 [label="年龄 <= 22.5\ngini = 0.278\nsamples = 6\nvalue = [1, 5]"] ;
8 -> 9 ;
10 [label="gini = 0.444\nsamples = 3\nvalue = [1, 2]"] ;
9 -> 10 ;
11 [label="gini = 0.0\nsamples = 3\nvalue = [0, 3]"] ;
9 -> 11 ;
12 [label="gini = 0.0\nsamples = 8\nvalue = [0, 8]"] ;
8 -> 12 ;
13 [label="年龄 <= 25.5\ngini = 0.444\nsamples = 9\nvalue = [3, 6]"] ;
7 -> 13 ;
14 [label="pclass=1st <= 0.5\ngini = 0.5\nsamples = 2\nvalue = [1, 1]"] ;
13 -> 14 ;
15 [label="gini = 0.0\nsamples = 1\nvalue = [0, 1]"] ;
14 -> 15 ;
16 [label="gini = 0.0\nsamples = 1\nvalue = [1, 0]"] ;
14 -> 16 ;
17 [label="pclass=2nd <= 0.5\ngini = 0.408\nsamples = 7\nvalue = [2, 5]"] ;
13 -> 17 ;
18 [label="gini = 0.0\nsamples = 2\nvalue = [0, 2]"] ;
17 -> 18 ;
19 [label="gini = 0.48\nsamples = 5\nvalue = [2, 3]"] ;
17 -> 19 ;
20 [label="年龄 <= 62.5\ngini = 0.115\nsamples = 147\nvalue = [9, 138]"] ;
6 -> 20 ;
21 [label="年龄 <= 38.5\ngini = 0.106\nsamples = 143\nvalue = [8, 135]"] ;
20 -> 21 ;
22 [label="年龄 <= 37.5\ngini = 0.128\nsamples = 87\nvalue = [6, 81]"] ;
21 -> 22 ;
23 [label="gini = 0.111\nsamples = 85\nvalue = [5, 80]"] ;
22 -> 23 ;
24 [label="gini = 0.5\nsamples = 2\nvalue = [1, 1]"] ;
22 -> 24 ;
25 [label="年龄 <= 49.5\ngini = 0.069\nsamples = 56\nvalue = [2, 54]"] ;
21 -> 25 ;
26 [label="gini = 0.0\nsamples = 31\nvalue = [0, 31]"] ;
25 -> 26 ;
27 [label="gini = 0.147\nsamples = 25\nvalue = [2, 23]"] ;
25 -> 27 ;
28 [label="年龄 <= 63.5\ngini = 0.375\nsamples = 4\nvalue = [1, 3]"] ;
20 -> 28 ;
29 [label="gini = 0.5\nsamples = 2\nvalue = [1, 1]"] ;
28 -> 29 ;
30 [label="gini = 0.0\nsamples = 2\nvalue = [0, 2]"] ;
28 -> 30 ;
31 [label="年龄 <= 19.5\ngini = 0.474\nsamples = 166\nvalue = [102, 64]"] ;
1 -> 31 ;
32 [label="年龄 <= 12.5\ngini = 0.48\nsamples = 20\nvalue = [8, 12]"] ;
31 -> 32 ;
33 [label="年龄 <= 7.0\ngini = 0.49\nsamples = 7\nvalue = [4, 3]"] ;
32 -> 33 ;
34 [label="年龄 <= 2.5\ngini = 0.375\nsamples = 4\nvalue = [1, 3]"] ;
33 -> 34 ;
35 [label="年龄 <= 1.083\ngini = 0.5\nsamples = 2\nvalue = [1, 1]"] ;
34 -> 35 ;
36 [label="gini = 0.0\nsamples = 1\nvalue = [0, 1]"] ;
35 -> 36 ;
37 [label="gini = 0.0\nsamples = 1\nvalue = [1, 0]"] ;
35 -> 37 ;
38 [label="gini = 0.0\nsamples = 2\nvalue = [0, 2]"] ;
34 -> 38 ;
39 [label="gini = 0.0\nsamples = 3\nvalue = [3, 0]"] ;
33 -> 39 ;
40 [label="年龄 <= 17.5\ngini = 0.426\nsamples = 13\nvalue = [4, 9]"] ;
32 -> 40 ;
41 [label="年龄 <= 15.5\ngini = 0.278\nsamples = 6\nvalue = [1, 5]"] ;
40 -> 41 ;
42 [label="gini = 0.0\nsamples = 1\nvalue = [0, 1]"] ;
41 -> 42 ;
43 [label="年龄 <= 16.5\ngini = 0.32\nsamples = 5\nvalue = [1, 4]"] ;
41 -> 43 ;
44 [label="gini = 0.375\nsamples = 4\nvalue = [1, 3]"] ;
43 -> 44 ;
45 [label="gini = 0.0\nsamples = 1\nvalue = [0, 1]"] ;
43 -> 45 ;
46 [label="年龄 <= 18.5\ngini = 0.49\nsamples = 7\nvalue = [3, 4]"] ;
40 -> 46 ;
47 [label="gini = 0.5\nsamples = 6\nvalue = [3, 3]"] ;
46 -> 47 ;
48 [label="gini = 0.0\nsamples = 1\nvalue = [0, 1]"] ;
46 -> 48 ;
49 [label="年龄 <= 32.097\ngini = 0.459\nsamples = 146\nvalue = [94, 52]"] ;
31 -> 49 ;
50 [label="年龄 <= 21.5\ngini = 0.448\nsamples = 136\nvalue = [90, 46]"] ;
49 -> 50 ;
51 [label="gini = 0.0\nsamples = 4\nvalue = [4, 0]"] ;
50 -> 51 ;
52 [label="年龄 <= 25.0\ngini = 0.454\nsamples = 132\nvalue = [86, 46]"] ;
50 -> 52 ;
53 [label="年龄 <= 22.5\ngini = 0.375\nsamples = 4\nvalue = [1, 3]"] ;
52 -> 53 ;
54 [label="gini = 0.444\nsamples = 3\nvalue = [1, 2]"] ;
53 -> 54 ;
55 [label="gini = 0.0\nsamples = 1\nvalue = [0, 1]"] ;
53 -> 55 ;
56 [label="年龄 <= 28.5\ngini = 0.446\nsamples = 128\nvalue = [85, 43]"] ;
52 -> 56 ;
57 [label="gini = 0.0\nsamples = 1\nvalue = [1, 0]"] ;
56 -> 57 ;
58 [label="年龄 <= 30.597\ngini = 0.448\nsamples = 127\nvalue = [84, 43]"] ;
56 -> 58 ;
59 [label="gini = 0.5\nsamples = 2\nvalue = [1, 1]"] ;
58 -> 59 ;
60 [label="gini = 0.446\nsamples = 125\nvalue = [83, 42]"] ;
58 -> 60 ;
61 [label="年龄 <= 37.0\ngini = 0.48\nsamples = 10\nvalue = [4, 6]"] ;
49 -> 61 ;
62 [label="gini = 0.0\nsamples = 4\nvalue = [0, 4]"] ;
61 -> 62 ;
63 [label="年龄 <= 46.5\ngini = 0.444\nsamples = 6\nvalue = [4, 2]"] ;
61 -> 63 ;
64 [label="年龄 <= 38.5\ngini = 0.48\nsamples = 5\nvalue = [3, 2]"] ;
63 -> 64 ;
65 [label="gini = 0.5\nsamples = 2\nvalue = [1, 1]"] ;
64 -> 65 ;
66 [label="年龄 <= 42.0\ngini = 0.444\nsamples = 3\nvalue = [2, 1]"] ;
64 -> 66 ;
67 [label="gini = 0.0\nsamples = 1\nvalue = [1, 0]"] ;
66 -> 67 ;
68 [label="gini = 0.5\nsamples = 2\nvalue = [1, 1]"] ;
66 -> 68 ;
69 [label="gini = 0.0\nsamples = 1\nvalue = [1, 0]"] ;
63 -> 69 ;
70 [label="年龄 <= 12.0\ngini = 0.304\nsamples = 615\nvalue = [500, 115]"] ;
0 -> 70 [labeldistance=2.5, labelangle=-45, headlabel="False"] ;
71 [label="pclass=3rd <= 0.5\ngini = 0.34\nsamples = 23\nvalue = [5, 18]"] ;
70 -> 71 ;
72 [label="gini = 0.0\nsamples = 13\nvalue = [0, 13]"] ;
71 -> 72 ;
73 [label="年龄 <= 3.5\ngini = 0.5\nsamples = 10\nvalue = [5, 5]"] ;
71 -> 73 ;
74 [label="年龄 <= 0.583\ngini = 0.32\nsamples = 5\nvalue = [1, 4]"] ;
73 -> 74 ;
75 [label="gini = 0.0\nsamples = 1\nvalue = [1, 0]"] ;
74 -> 75 ;
76 [label="gini = 0.0\nsamples = 4\nvalue = [0, 4]"] ;
74 -> 76 ;
77 [label="年龄 <= 7.0\ngini = 0.32\nsamples = 5\nvalue = [4, 1]"] ;
73 -> 77 ;
78 [label="gini = 0.0\nsamples = 2\nvalue = [2, 0]"] ;
77 -> 78 ;
79 [label="gini = 0.444\nsamples = 3\nvalue = [2, 1]"] ;
77 -> 79 ;
80 [label="pclass=1st <= 0.5\ngini = 0.274\nsamples = 592\nvalue = [495, 97]"] ;
70 -> 80 ;
81 [label="年龄 <= 42.0\ngini = 0.195\nsamples = 465\nvalue = [414, 51]"] ;
80 -> 81 ;
82 [label="年龄 <= 18.5\ngini = 0.203\nsamples = 445\nvalue = [394, 51]"] ;
81 -> 82 ;
83 [label="gini = 0.0\nsamples = 13\nvalue = [13, 0]"] ;
82 -> 83 ;
84 [label="年龄 <= 19.5\ngini = 0.208\nsamples = 432\nvalue = [381, 51]"] ;
82 -> 84 ;
85 [label="pclass=3rd <= 0.5\ngini = 0.444\nsamples = 9\nvalue = [6, 3]"] ;
84 -> 85 ;
86 [label="gini = 0.5\nsamples = 2\nvalue = [1, 1]"] ;
85 -> 86 ;
87 [label="gini = 0.408\nsamples = 7\nvalue = [5, 2]"] ;
85 -> 87 ;
88 [label="年龄 <= 40.5\ngini = 0.201\nsamples = 423\nvalue = [375, 48]"] ;
84 -> 88 ;
89 [label="年龄 <= 37.0\ngini = 0.199\nsamples = 420\nvalue = [373, 47]"] ;
88 -> 89 ;
90 [label="gini = 0.203\nsamples = 411\nvalue = [364, 47]"] ;
89 -> 90 ;
91 [label="gini = 0.0\nsamples = 9\nvalue = [9, 0]"] ;
89 -> 91 ;
92 [label="pclass=2nd <= 0.5\ngini = 0.444\nsamples = 3\nvalue = [2, 1]"] ;
88 -> 92 ;
93 [label="gini = 0.0\nsamples = 1\nvalue = [1, 0]"] ;
92 -> 93 ;
94 [label="gini = 0.5\nsamples = 2\nvalue = [1, 1]"] ;
92 -> 94 ;
95 [label="gini = 0.0\nsamples = 20\nvalue = [20, 0]"] ;
81 -> 95 ;
96 [label="年龄 <= 49.5\ngini = 0.462\nsamples = 127\nvalue = [81, 46]"] ;
80 -> 96 ;
97 [label="年龄 <= 47.5\ngini = 0.488\nsamples = 104\nvalue = [60, 44]"] ;
96 -> 97 ;
98 [label="年龄 <= 38.5\ngini = 0.477\nsamples = 97\nvalue = [59, 38]"] ;
97 -> 98 ;
99 [label="年龄 <= 26.5\ngini = 0.495\nsamples = 73\nvalue = [40, 33]"] ;
98 -> 99 ;
100 [label="年龄 <= 19.0\ngini = 0.42\nsamples = 10\nvalue = [3, 7]"] ;
99 -> 100 ;
101 [label="gini = 0.0\nsamples = 2\nvalue = [0, 2]"] ;
100 -> 101 ;
102 [label="gini = 0.469\nsamples = 8\nvalue = [3, 5]"] ;
100 -> 102 ;
103 [label="年龄 <= 37.5\ngini = 0.485\nsamples = 63\nvalue = [37, 26]"] ;
99 -> 103 ;
104 [label="gini = 0.481\nsamples = 62\nvalue = [37, 25]"] ;
103 -> 104 ;
105 [label="gini = 0.0\nsamples = 1\nvalue = [0, 1]"] ;
103 -> 105 ;
106 [label="年龄 <= 45.5\ngini = 0.33\nsamples = 24\nvalue = [19, 5]"] ;
98 -> 106 ;
107 [label="年龄 <= 41.5\ngini = 0.391\nsamples = 15\nvalue = [11, 4]"] ;
106 -> 107 ;
108 [label="gini = 0.278\nsamples = 6\nvalue = [5, 1]"] ;
107 -> 108 ;
109 [label="gini = 0.444\nsamples = 9\nvalue = [6, 3]"] ;
107 -> 109 ;
110 [label="年龄 <= 46.5\ngini = 0.198\nsamples = 9\nvalue = [8, 1]"] ;
106 -> 110 ;
111 [label="gini = 0.0\nsamples = 4\nvalue = [4, 0]"] ;
110 -> 111 ;
112 [label="gini = 0.32\nsamples = 5\nvalue = [4, 1]"] ;
110 -> 112 ;
113 [label="年龄 <= 48.5\ngini = 0.245\nsamples = 7\nvalue = [1, 6]"] ;
97 -> 113 ;
114 [label="gini = 0.444\nsamples = 3\nvalue = [1, 2]"] ;
113 -> 114 ;
115 [label="gini = 0.0\nsamples = 4\nvalue = [0, 4]"] ;
113 -> 115 ;
116 [label="年龄 <= 56.5\ngini = 0.159\nsamples = 23\nvalue = [21, 2]"] ;
96 -> 116 ;
117 [label="年龄 <= 52.5\ngini = 0.298\nsamples = 11\nvalue = [9, 2]"] ;
116 -> 117 ;
118 [label="gini = 0.0\nsamples = 3\nvalue = [3, 0]"] ;
117 -> 118 ;
119 [label="年龄 <= 54.5\ngini = 0.375\nsamples = 8\nvalue = [6, 2]"] ;
117 -> 119 ;
120 [label="gini = 0.5\nsamples = 2\nvalue = [1, 1]"] ;
119 -> 120 ;
121 [label="年龄 <= 55.5\ngini = 0.278\nsamples = 6\nvalue = [5, 1]"] ;
119 -> 121 ;
122 [label="gini = 0.0\nsamples = 3\nvalue = [3, 0]"] ;
121 -> 122 ;
123 [label="gini = 0.444\nsamples = 3\nvalue = [2, 1]"] ;
121 -> 123 ;
124 [label="gini = 0.0\nsamples = 12\nvalue = [12, 0]"] ;
116 -> 124 ;
}